#pragma once
#include <cstdarg>
namespace Eloquent {
    namespace ML {
        namespace Port {
            class Classifier {
                public:
                    /**
                    * Predict class for features vector
                    */
                    int predict(float *x) {
                        uint8_t votes[4] = { 0 };
                        // tree #1
                        if (x[49] <= 1.809999942779541) {
                            if (x[4] <= 30.839999198913574) {
                                votes[1] += 1;
                            }

                            else {
                                votes[3] += 1;
                            }
                        }

                        else {
                            if (x[15] <= 7.659999847412109) {
                                votes[1] += 1;
                            }

                            else {
                                votes[0] += 1;
                            }
                        }

                        // tree #2
                        if (x[23] <= 10.209999561309814) {
                            if (x[13] <= 10.53999948501587) {
                                votes[3] += 1;
                            }

                            else {
                                votes[0] += 1;
                            }
                        }

                        else {
                            if (x[58] <= 55.439998626708984) {
                                votes[2] += 1;
                            }

                            else {
                                votes[1] += 1;
                            }
                        }

                        // tree #3
                        if (x[10] <= 15.559999465942383) {
                            if (x[48] <= 1.809999942779541) {
                                votes[3] += 1;
                            }

                            else {
                                votes[1] += 1;
                            }
                        }

                        else {
                            if (x[26] <= 20.66999912261963) {
                                votes[0] += 1;
                            }

                            else {
                                votes[2] += 1;
                            }
                        }

                        // tree #4
                        if (x[19] <= 7.659999847412109) {
                            if (x[4] <= 32.499999046325684) {
                                votes[1] += 1;
                            }

                            else {
                                votes[3] += 1;
                            }
                        }

                        else {
                            if (x[23] <= 11.699999809265137) {
                                votes[0] += 1;
                            }

                            else {
                                votes[2] += 1;
                            }
                        }

                        // tree #5
                        if (x[13] <= 12.769999980926514) {
                            if (x[41] <= 5.680000066757202) {
                                votes[3] += 1;
                            }

                            else {
                                votes[1] += 1;
                            }
                        }

                        else {
                            if (x[24] <= 17.6899995803833) {
                                votes[0] += 1;
                            }

                            else {
                                votes[2] += 1;
                            }
                        }

                        // tree #6
                        if (x[19] <= 7.659999847412109) {
                            if (x[5] <= 37.54999923706055) {
                                votes[1] += 1;
                            }

                            else {
                                votes[3] += 1;
                            }
                        }

                        else {
                            if (x[0] <= 61.90999794006348) {
                                votes[2] += 1;
                            }

                            else {
                                votes[0] += 1;
                            }
                        }

                        // tree #7
                        if (x[14] <= 10.779999732971191) {
                            if (x[19] <= 1.809999942779541) {
                                votes[1] += 1;
                            }

                            else {
                                votes[3] += 1;
                            }
                        }

                        else {
                            if (x[38] <= 9.53999948501587) {
                                votes[2] += 1;
                            }

                            else {
                                votes[0] += 1;
                            }
                        }

                        // tree #8
                        if (x[49] <= 1.809999942779541) {
                            if (x[48] <= 1.809999942779541) {
                                votes[3] += 1;
                            }

                            else {
                                votes[1] += 1;
                            }
                        }

                        else {
                            if (x[24] <= 17.6899995803833) {
                                votes[0] += 1;
                            }

                            else {
                                votes[2] += 1;
                            }
                        }

                        // tree #9
                        if (x[10] <= 14.699999809265137) {
                            if (x[3] <= 46.89999961853027) {
                                votes[1] += 1;
                            }

                            else {
                                votes[3] += 1;
                            }
                        }

                        else {
                            if (x[46] <= 6.75) {
                                votes[0] += 1;
                            }

                            else {
                                votes[2] += 1;
                            }
                        }

                        // tree #10
                        if (x[48] <= 6.75) {
                            if (x[49] <= 5.680000066757202) {
                                votes[3] += 1;
                            }

                            else {
                                votes[1] += 1;
                            }
                        }

                        else {
                            if (x[25] <= 6.75) {
                                votes[0] += 1;
                            }

                            else {
                                votes[2] += 1;
                            }
                        }

                        // tree #11
                        if (x[16] <= 9.049999713897705) {
                            if (x[35] <= 8.46999979019165) {
                                votes[3] += 1;
                            }

                            else {
                                votes[1] += 1;
                            }
                        }

                        else {
                            if (x[25] <= 4.359999895095825) {
                                votes[0] += 1;
                            }

                            else {
                                votes[2] += 1;
                            }
                        }

                        // tree #12
                        if (x[47] <= 4.359999895095825) {
                            if (x[34] <= 9.759999752044678) {
                                votes[3] += 1;
                            }

                            else {
                                votes[0] += 1;
                            }
                        }

                        else {
                            if (x[14] <= 1.809999942779541) {
                                votes[1] += 1;
                            }

                            else {
                                votes[0] += 1;
                            }
                        }

                        // tree #13
                        if (x[47] <= 5.680000066757202) {
                            if (x[4] <= 37.1899995803833) {
                                votes[1] += 1;
                            }

                            else {
                                votes[3] += 1;
                            }
                        }

                        else {
                            if (x[6] <= 173.18999481201172) {
                                votes[2] += 1;
                            }

                            else {
                                votes[0] += 1;
                            }
                        }

                        // tree #14
                        if (x[20] <= 21.4399995803833) {
                            if (x[15] <= 13.980000019073486) {
                                votes[3] += 1;
                            }

                            else {
                                votes[0] += 1;
                            }
                        }

                        else {
                            if (x[43] <= 61.349998474121094) {
                                votes[2] += 1;
                            }

                            else {
                                votes[1] += 1;
                            }
                        }

                        // tree #15
                        if (x[9] <= 30.579999923706055) {
                            if (x[7] <= 4.359999895095825) {
                                votes[1] += 1;
                            }

                            else {
                                votes[3] += 1;
                            }
                        }

                        else {
                            if (x[24] <= 17.6899995803833) {
                                votes[0] += 1;
                            }

                            else {
                                votes[2] += 1;
                            }
                        }

                        // tree #16
                        if (x[6] <= 9.209999561309814) {
                            if (x[12] <= 7.909999847412109) {
                                votes[1] += 1;
                            }

                            else {
                                votes[2] += 1;
                            }
                        }

                        else {
                            if (x[10] <= 15.349999904632568) {
                                votes[3] += 1;
                            }

                            else {
                                votes[0] += 1;
                            }
                        }

                        // tree #17
                        if (x[9] <= 13.039999961853027) {
                            if (x[19] <= 1.809999942779541) {
                                votes[1] += 1;
                            }

                            else {
                                votes[3] += 1;
                            }
                        }

                        else {
                            if (x[24] <= 16.40999984741211) {
                                votes[0] += 1;
                            }

                            else {
                                votes[2] += 1;
                            }
                        }

                        // tree #18
                        if (x[48] <= 5.680000066757202) {
                            if (x[3] <= 28.9399995803833) {
                                votes[1] += 1;
                            }

                            else {
                                votes[3] += 1;
                            }
                        }

                        else {
                            if (x[26] <= 4.359999895095825) {
                                votes[0] += 1;
                            }

                            else {
                                votes[2] += 1;
                            }
                        }

                        // tree #19
                        if (x[16] <= 9.049999713897705) {
                            if (x[9] <= 11.71999979019165) {
                                votes[1] += 1;
                            }

                            else {
                                votes[3] += 1;
                            }
                        }

                        else {
                            if (x[26] <= 4.359999895095825) {
                                votes[0] += 1;
                            }

                            else {
                                votes[2] += 1;
                            }
                        }

                        // tree #20
                        if (x[9] <= 13.509999752044678) {
                            if (x[0] <= 49.1299991607666) {
                                votes[1] += 1;
                            }

                            else {
                                votes[3] += 1;
                            }
                        }

                        else {
                            if (x[61] <= 4.359999895095825) {
                                votes[0] += 1;
                            }

                            else {
                                votes[2] += 1;
                            }
                        }

                        // tree #21
                        if (x[24] <= 17.6899995803833) {
                            if (x[8] <= 17.140000343322754) {
                                votes[1] += 1;
                            }

                            else {
                                votes[0] += 1;
                            }
                        }

                        else {
                            if (x[23] <= 70.6299991607666) {
                                votes[2] += 1;
                            }

                            else {
                                votes[1] += 1;
                            }
                        }

                        // tree #22
                        if (x[7] <= 21.219999313354492) {
                            if (x[35] <= 1.809999942779541) {
                                votes[3] += 1;
                            }

                            else {
                                votes[1] += 1;
                            }
                        }

                        else {
                            if (x[25] <= 12.239999771118164) {
                                votes[0] += 1;
                            }

                            else {
                                votes[2] += 1;
                            }
                        }

                        // tree #23
                        if (x[12] <= 10.209999561309814) {
                            if (x[15] <= 1.809999942779541) {
                                votes[1] += 1;
                            }

                            else {
                                votes[1] += 1;
                            }
                        }

                        else {
                            if (x[24] <= 14.25) {
                                votes[0] += 1;
                            }

                            else {
                                votes[2] += 1;
                            }
                        }

                        // tree #24
                        if (x[10] <= 25.189998626708984) {
                            if (x[4] <= 37.1899995803833) {
                                votes[1] += 1;
                            }

                            else {
                                votes[3] += 1;
                            }
                        }

                        else {
                            if (x[25] <= 12.669999599456787) {
                                votes[0] += 1;
                            }

                            else {
                                votes[2] += 1;
                            }
                        }

                        // tree #25
                        if (x[15] <= 12.789999961853027) {
                            if (x[35] <= 5.680000066757202) {
                                votes[3] += 1;
                            }

                            else {
                                votes[1] += 1;
                            }
                        }

                        else {
                            if (x[24] <= 17.6899995803833) {
                                votes[0] += 1;
                            }

                            else {
                                votes[2] += 1;
                            }
                        }

                        // tree #26
                        if (x[9] <= 30.579999923706055) {
                            if (x[35] <= 6.75) {
                                votes[3] += 1;
                            }

                            else {
                                votes[1] += 1;
                            }
                        }

                        else {
                            if (x[23] <= 17.6899995803833) {
                                votes[0] += 1;
                            }

                            else {
                                votes[2] += 1;
                            }
                        }

                        // tree #27
                        if (x[47] <= 1.809999942779541) {
                            if (x[4] <= 51.30999755859375) {
                                votes[1] += 1;
                            }

                            else {
                                votes[3] += 1;
                            }
                        }

                        else {
                            if (x[1] <= 121.34999465942383) {
                                votes[2] += 1;
                            }

                            else {
                                votes[0] += 1;
                            }
                        }

                        // tree #28
                        if (x[15] <= 8.46999979019165) {
                            if (x[4] <= 56.44999885559082) {
                                votes[1] += 1;
                            }

                            else {
                                votes[3] += 1;
                            }
                        }

                        else {
                            if (x[25] <= 26.229999542236328) {
                                votes[0] += 1;
                            }

                            else {
                                votes[2] += 1;
                            }
                        }

                        // tree #29
                        if (x[12] <= 5.680000066757202) {
                            if (x[34] <= 1.809999942779541) {
                                votes[3] += 1;
                            }

                            else {
                                votes[1] += 1;
                            }
                        }

                        else {
                            if (x[47] <= 4.940000057220459) {
                                votes[3] += 1;
                            }

                            else {
                                votes[2] += 1;
                            }
                        }

                        // tree #30
                        if (x[12] <= 8.819999694824219) {
                            if (x[48] <= 1.809999942779541) {
                                votes[3] += 1;
                            }

                            else {
                                votes[1] += 1;
                            }
                        }

                        else {
                            if (x[23] <= 30.329999923706055) {
                                votes[0] += 1;
                            }

                            else {
                                votes[2] += 1;
                            }
                        }

                        // tree #31
                        if (x[20] <= 6.169999837875366) {
                            if (x[40] <= 6.75) {
                                votes[3] += 1;
                            }

                            else {
                                votes[1] += 1;
                            }
                        }

                        else {
                            if (x[24] <= 17.6899995803833) {
                                votes[0] += 1;
                            }

                            else {
                                votes[2] += 1;
                            }
                        }

                        // tree #32
                        if (x[5] <= 29.499998092651367) {
                            if (x[45] <= 1.809999942779541) {
                                votes[1] += 1;
                            }

                            else {
                                votes[1] += 1;
                            }
                        }

                        else {
                            if (x[15] <= 13.730000019073486) {
                                votes[3] += 1;
                            }

                            else {
                                votes[0] += 1;
                            }
                        }

                        // tree #33
                        if (x[47] <= 1.809999942779541) {
                            if (x[21] <= 7.170000076293945) {
                                votes[3] += 1;
                            }

                            else {
                                votes[0] += 1;
                            }
                        }

                        else {
                            if (x[13] <= 6.5899999141693115) {
                                votes[1] += 1;
                            }

                            else {
                                votes[2] += 1;
                            }
                        }

                        // tree #34
                        if (x[9] <= 12.769999980926514) {
                            if (x[29] <= 4.359999895095825) {
                                votes[3] += 1;
                            }

                            else {
                                votes[1] += 1;
                            }
                        }

                        else {
                            if (x[20] <= 31.239999771118164) {
                                votes[0] += 1;
                            }

                            else {
                                votes[2] += 1;
                            }
                        }

                        // tree #35
                        if (x[15] <= 8.819999694824219) {
                            if (x[44] <= 1.809999942779541) {
                                votes[3] += 1;
                            }

                            else {
                                votes[1] += 1;
                            }
                        }

                        else {
                            if (x[58] <= 56.90999889373779) {
                                votes[2] += 1;
                            }

                            else {
                                votes[1] += 1;
                            }
                        }

                        // tree #36
                        if (x[9] <= 30.579999923706055) {
                            if (x[5] <= 37.54999923706055) {
                                votes[1] += 1;
                            }

                            else {
                                votes[3] += 1;
                            }
                        }

                        else {
                            if (x[27] <= 4.940000057220459) {
                                votes[0] += 1;
                            }

                            else {
                                votes[2] += 1;
                            }
                        }

                        // tree #37
                        if (x[8] <= 48.709999084472656) {
                            if (x[28] <= 4.359999895095825) {
                                votes[3] += 1;
                            }

                            else {
                                votes[1] += 1;
                            }
                        }

                        else {
                            if (x[32] <= 5.680000066757202) {
                                votes[0] += 1;
                            }

                            else {
                                votes[2] += 1;
                            }
                        }

                        // tree #38
                        if (x[15] <= 8.46999979019165) {
                            if (x[4] <= 39.66999912261963) {
                                votes[1] += 1;
                            }

                            else {
                                votes[3] += 1;
                            }
                        }

                        else {
                            if (x[53] <= 7.659999847412109) {
                                votes[0] += 1;
                            }

                            else {
                                votes[2] += 1;
                            }
                        }

                        // tree #39
                        if (x[19] <= 6.75) {
                            if (x[6] <= 13.659999370574951) {
                                votes[1] += 1;
                            }

                            else {
                                votes[3] += 1;
                            }
                        }

                        else {
                            if (x[40] <= 4.940000057220459) {
                                votes[0] += 1;
                            }

                            else {
                                votes[2] += 1;
                            }
                        }

                        // tree #40
                        if (x[22] <= 20.089999198913574) {
                            if (x[47] <= 4.940000057220459) {
                                votes[3] += 1;
                            }

                            else {
                                votes[0] += 1;
                            }
                        }

                        else {
                            if (x[60] <= 55.25999927520752) {
                                votes[2] += 1;
                            }

                            else {
                                votes[1] += 1;
                            }
                        }

                        // tree #41
                        if (x[9] <= 12.769999980926514) {
                            if (x[47] <= 1.809999942779541) {
                                votes[3] += 1;
                            }

                            else {
                                votes[1] += 1;
                            }
                        }

                        else {
                            if (x[18] <= 22.739999771118164) {
                                votes[0] += 1;
                            }

                            else {
                                votes[2] += 1;
                            }
                        }

                        // tree #42
                        if (x[16] <= 10.53999948501587) {
                            if (x[41] <= 5.680000066757202) {
                                votes[3] += 1;
                            }

                            else {
                                votes[1] += 1;
                            }
                        }

                        else {
                            if (x[33] <= 7.659999847412109) {
                                votes[0] += 1;
                            }

                            else {
                                votes[2] += 1;
                            }
                        }

                        // tree #43
                        if (x[18] <= 7.170000076293945) {
                            if (x[5] <= 37.54999923706055) {
                                votes[1] += 1;
                            }

                            else {
                                votes[3] += 1;
                            }
                        }

                        else {
                            if (x[22] <= 13.78000020980835) {
                                votes[0] += 1;
                            }

                            else {
                                votes[2] += 1;
                            }
                        }

                        // tree #44
                        if (x[9] <= 13.239999771118164) {
                            if (x[5] <= 32.04999923706055) {
                                votes[1] += 1;
                            }

                            else {
                                votes[3] += 1;
                            }
                        }

                        else {
                            if (x[27] <= 14.289999961853027) {
                                votes[0] += 1;
                            }

                            else {
                                votes[2] += 1;
                            }
                        }

                        // tree #45
                        if (x[13] <= 14.25) {
                            if (x[8] <= 4.359999895095825) {
                                votes[1] += 1;
                            }

                            else {
                                votes[3] += 1;
                            }
                        }

                        else {
                            if (x[37] <= 7.659999847412109) {
                                votes[0] += 1;
                            }

                            else {
                                votes[2] += 1;
                            }
                        }

                        // tree #46
                        if (x[6] <= 13.659999370574951) {
                            votes[1] += 1;
                        }

                        else {
                            if (x[41] <= 5.680000066757202) {
                                votes[3] += 1;
                            }

                            else {
                                votes[2] += 1;
                            }
                        }

                        // tree #47
                        if (x[13] <= 11.109999656677246) {
                            if (x[5] <= 37.54999923706055) {
                                votes[1] += 1;
                            }

                            else {
                                votes[3] += 1;
                            }
                        }

                        else {
                            if (x[25] <= 12.959999561309814) {
                                votes[0] += 1;
                            }

                            else {
                                votes[2] += 1;
                            }
                        }

                        // tree #48
                        if (x[14] <= 10.779999732971191) {
                            if (x[35] <= 5.680000066757202) {
                                votes[3] += 1;
                            }

                            else {
                                votes[1] += 1;
                            }
                        }

                        else {
                            if (x[24] <= 17.859999656677246) {
                                votes[0] += 1;
                            }

                            else {
                                votes[2] += 1;
                            }
                        }

                        // tree #49
                        if (x[8] <= 11.949999809265137) {
                            if (x[5] <= 12.239999771118164) {
                                votes[1] += 1;
                            }

                            else {
                                votes[3] += 1;
                            }
                        }

                        else {
                            if (x[50] <= 61.349998474121094) {
                                votes[2] += 1;
                            }

                            else {
                                votes[1] += 1;
                            }
                        }

                        // tree #50
                        if (x[12] <= 8.819999694824219) {
                            if (x[47] <= 1.809999942779541) {
                                votes[3] += 1;
                            }

                            else {
                                votes[1] += 1;
                            }
                        }

                        else {
                            if (x[26] <= 9.209999561309814) {
                                votes[0] += 1;
                            }

                            else {
                                votes[2] += 1;
                            }
                        }

                        // tree #51
                        if (x[11] <= 11.429999828338623) {
                            if (x[6] <= 37.95999813079834) {
                                votes[1] += 1;
                            }

                            else {
                                votes[3] += 1;
                            }
                        }

                        else {
                            if (x[62] <= 7.170000076293945) {
                                votes[0] += 1;
                            }

                            else {
                                votes[2] += 1;
                            }
                        }

                        // tree #52
                        if (x[11] <= 11.429999828338623) {
                            if (x[5] <= 27.91999912261963) {
                                votes[1] += 1;
                            }

                            else {
                                votes[3] += 1;
                            }
                        }

                        else {
                            if (x[63] <= 9.889999389648438) {
                                votes[0] += 1;
                            }

                            else {
                                votes[2] += 1;
                            }
                        }

                        // tree #53
                        if (x[20] <= 6.75) {
                            if (x[34] <= 6.75) {
                                votes[3] += 1;
                            }

                            else {
                                votes[1] += 1;
                            }
                        }

                        else {
                            if (x[61] <= 4.359999895095825) {
                                votes[0] += 1;
                            }

                            else {
                                votes[2] += 1;
                            }
                        }

                        // tree #54
                        if (x[9] <= 13.509999752044678) {
                            if (x[1] <= 53.46999931335449) {
                                votes[1] += 1;
                            }

                            else {
                                votes[3] += 1;
                            }
                        }

                        else {
                            if (x[24] <= 17.489999771118164) {
                                votes[0] += 1;
                            }

                            else {
                                votes[2] += 1;
                            }
                        }

                        // tree #55
                        if (x[19] <= 6.75) {
                            if (x[48] <= 1.809999942779541) {
                                votes[3] += 1;
                            }

                            else {
                                votes[1] += 1;
                            }
                        }

                        else {
                            if (x[19] <= 23.969999313354492) {
                                votes[0] += 1;
                            }

                            else {
                                votes[2] += 1;
                            }
                        }

                        // tree #56
                        if (x[54] <= 1.809999942779541) {
                            if (x[34] <= 5.680000066757202) {
                                votes[3] += 1;
                            }

                            else {
                                votes[1] += 1;
                            }
                        }

                        else {
                            if (x[24] <= 17.6899995803833) {
                                votes[0] += 1;
                            }

                            else {
                                votes[2] += 1;
                            }
                        }

                        // tree #57
                        if (x[8] <= 11.949999809265137) {
                            if (x[20] <= 4.359999895095825) {
                                votes[1] += 1;
                            }

                            else {
                                votes[3] += 1;
                            }
                        }

                        else {
                            if (x[20] <= 21.4399995803833) {
                                votes[0] += 1;
                            }

                            else {
                                votes[2] += 1;
                            }
                        }

                        // tree #58
                        if (x[7] <= 10.53999948501587) {
                            if (x[4] <= 58.29999923706055) {
                                votes[1] += 1;
                            }

                            else {
                                votes[1] += 1;
                            }
                        }

                        else {
                            if (x[6] <= 75.36999893188477) {
                                votes[3] += 1;
                            }

                            else {
                                votes[0] += 1;
                            }
                        }

                        // tree #59
                        if (x[15] <= 7.659999847412109) {
                            if (x[36] <= 1.809999942779541) {
                                votes[3] += 1;
                            }

                            else {
                                votes[1] += 1;
                            }
                        }

                        else {
                            if (x[27] <= 5.680000066757202) {
                                votes[0] += 1;
                            }

                            else {
                                votes[2] += 1;
                            }
                        }

                        // tree #60
                        if (x[11] <= 10.779999732971191) {
                            if (x[5] <= 27.91999912261963) {
                                votes[1] += 1;
                            }

                            else {
                                votes[3] += 1;
                            }
                        }

                        else {
                            if (x[41] <= 1.809999942779541) {
                                votes[0] += 1;
                            }

                            else {
                                votes[2] += 1;
                            }
                        }

                        // tree #61
                        if (x[11] <= 10.429999828338623) {
                            if (x[5] <= 27.91999912261963) {
                                votes[1] += 1;
                            }

                            else {
                                votes[3] += 1;
                            }
                        }

                        else {
                            if (x[25] <= 11.949999809265137) {
                                votes[0] += 1;
                            }

                            else {
                                votes[2] += 1;
                            }
                        }

                        // tree #62
                        if (x[8] <= 11.949999809265137) {
                            if (x[5] <= 37.54999923706055) {
                                votes[1] += 1;
                            }

                            else {
                                votes[3] += 1;
                            }
                        }

                        else {
                            if (x[26] <= 4.359999895095825) {
                                votes[0] += 1;
                            }

                            else {
                                votes[2] += 1;
                            }
                        }

                        // tree #63
                        if (x[15] <= 8.46999979019165) {
                            if (x[38] <= 9.149999618530273) {
                                votes[3] += 1;
                            }

                            else {
                                votes[1] += 1;
                            }
                        }

                        else {
                            if (x[20] <= 20.920000076293945) {
                                votes[0] += 1;
                            }

                            else {
                                votes[2] += 1;
                            }
                        }

                        // tree #64
                        if (x[16] <= 10.53999948501587) {
                            if (x[16] <= 1.809999942779541) {
                                votes[1] += 1;
                            }

                            else {
                                votes[3] += 1;
                            }
                        }

                        else {
                            if (x[25] <= 12.239999771118164) {
                                votes[0] += 1;
                            }

                            else {
                                votes[2] += 1;
                            }
                        }

                        // tree #65
                        if (x[5] <= 12.239999771118164) {
                            if (x[32] <= 5.680000066757202) {
                                votes[1] += 1;
                            }

                            else {
                                votes[3] += 1;
                            }
                        }

                        else {
                            if (x[56] <= 57.64999866485596) {
                                votes[0] += 1;
                            }

                            else {
                                votes[1] += 1;
                            }
                        }

                        // tree #66
                        if (x[10] <= 15.759999752044678) {
                            if (x[39] <= 6.75) {
                                votes[3] += 1;
                            }

                            else {
                                votes[1] += 1;
                            }
                        }

                        else {
                            if (x[55] <= 17.899999141693115) {
                                votes[2] += 1;
                            }

                            else {
                                votes[0] += 1;
                            }
                        }

                        // tree #67
                        if (x[12] <= 11.429999828338623) {
                            if (x[19] <= 1.809999942779541) {
                                votes[1] += 1;
                            }

                            else {
                                votes[3] += 1;
                            }
                        }

                        else {
                            if (x[20] <= 18.880000114440918) {
                                votes[0] += 1;
                            }

                            else {
                                votes[2] += 1;
                            }
                        }

                        // tree #68
                        if (x[14] <= 10.779999732971191) {
                            if (x[7] <= 4.359999895095825) {
                                votes[1] += 1;
                            }

                            else {
                                votes[3] += 1;
                            }
                        }

                        else {
                            if (x[18] <= 22.739999771118164) {
                                votes[0] += 1;
                            }

                            else {
                                votes[2] += 1;
                            }
                        }

                        // tree #69
                        if (x[0] <= 73.69999694824219) {
                            if (x[9] <= 44.029998779296875) {
                                votes[3] += 1;
                            }

                            else {
                                votes[2] += 1;
                            }
                        }

                        else {
                            if (x[13] <= 9.46999979019165) {
                                votes[2] += 1;
                            }

                            else {
                                votes[0] += 1;
                            }
                        }

                        // tree #70
                        if (x[14] <= 10.779999732971191) {
                            if (x[7] <= 7.659999847412109) {
                                votes[1] += 1;
                            }

                            else {
                                votes[3] += 1;
                            }
                        }

                        else {
                            if (x[62] <= 4.359999895095825) {
                                votes[0] += 1;
                            }

                            else {
                                votes[2] += 1;
                            }
                        }

                        // tree #71
                        if (x[10] <= 15.550000190734863) {
                            if (x[16] <= 1.809999942779541) {
                                votes[1] += 1;
                            }

                            else {
                                votes[3] += 1;
                            }
                        }

                        else {
                            if (x[26] <= 20.66999912261963) {
                                votes[0] += 1;
                            }

                            else {
                                votes[2] += 1;
                            }
                        }

                        // tree #72
                        if (x[20] <= 21.4399995803833) {
                            if (x[12] <= 11.429999828338623) {
                                votes[1] += 1;
                            }

                            else {
                                votes[0] += 1;
                            }
                        }

                        else {
                            if (x[27] <= 4.359999895095825) {
                                votes[0] += 1;
                            }

                            else {
                                votes[2] += 1;
                            }
                        }

                        // tree #73
                        if (x[45] <= 7.659999847412109) {
                            if (x[15] <= 13.730000019073486) {
                                votes[3] += 1;
                            }

                            else {
                                votes[0] += 1;
                            }
                        }

                        else {
                            if (x[45] <= 17.539999961853027) {
                                votes[2] += 1;
                            }

                            else {
                                votes[0] += 1;
                            }
                        }

                        // tree #74
                        if (x[13] <= 9.049999713897705) {
                            if (x[46] <= 1.809999942779541) {
                                votes[3] += 1;
                            }

                            else {
                                votes[1] += 1;
                            }
                        }

                        else {
                            if (x[24] <= 17.489999771118164) {
                                votes[0] += 1;
                            }

                            else {
                                votes[2] += 1;
                            }
                        }

                        // tree #75
                        if (x[3] <= 23.710000038146973) {
                            votes[1] += 1;
                        }

                        else {
                            if (x[45] <= 4.359999895095825) {
                                votes[3] += 1;
                            }

                            else {
                                votes[2] += 1;
                            }
                        }

                        // tree #76
                        if (x[4] <= 27.299999237060547) {
                            if (x[26] <= 9.209999561309814) {
                                votes[1] += 1;
                            }

                            else {
                                votes[2] += 1;
                            }
                        }

                        else {
                            if (x[41] <= 5.680000066757202) {
                                votes[3] += 1;
                            }

                            else {
                                votes[2] += 1;
                            }
                        }

                        // tree #77
                        if (x[11] <= 11.109999656677246) {
                            if (x[18] <= 1.809999942779541) {
                                votes[1] += 1;
                            }

                            else {
                                votes[3] += 1;
                            }
                        }

                        else {
                            if (x[47] <= 5.680000066757202) {
                                votes[0] += 1;
                            }

                            else {
                                votes[2] += 1;
                            }
                        }

                        // tree #78
                        if (x[4] <= 27.299999237060547) {
                            if (x[52] <= 7.909999847412109) {
                                votes[1] += 1;
                            }

                            else {
                                votes[2] += 1;
                            }
                        }

                        else {
                            if (x[19] <= 6.75) {
                                votes[3] += 1;
                            }

                            else {
                                votes[2] += 1;
                            }
                        }

                        // tree #79
                        if (x[11] <= 15.12999963760376) {
                            if (x[4] <= 57.65999794006348) {
                                votes[1] += 1;
                            }

                            else {
                                votes[3] += 1;
                            }
                        }

                        else {
                            if (x[22] <= 20.25999927520752) {
                                votes[0] += 1;
                            }

                            else {
                                votes[2] += 1;
                            }
                        }

                        // tree #80
                        if (x[17] <= 10.149999618530273) {
                            if (x[37] <= 11.109999656677246) {
                                votes[3] += 1;
                            }

                            else {
                                votes[0] += 1;
                            }
                        }

                        else {
                            if (x[23] <= 9.46999979019165) {
                                votes[0] += 1;
                            }

                            else {
                                votes[2] += 1;
                            }
                        }

                        // tree #81
                        if (x[10] <= 15.349999904632568) {
                            if (x[33] <= 1.809999942779541) {
                                votes[3] += 1;
                            }

                            else {
                                votes[1] += 1;
                            }
                        }

                        else {
                            if (x[26] <= 10.429999828338623) {
                                votes[0] += 1;
                            }

                            else {
                                votes[2] += 1;
                            }
                        }

                        // tree #82
                        if (x[12] <= 8.819999694824219) {
                            if (x[7] <= 1.809999942779541) {
                                votes[1] += 1;
                            }

                            else {
                                votes[3] += 1;
                            }
                        }

                        else {
                            if (x[38] <= 4.359999895095825) {
                                votes[0] += 1;
                            }

                            else {
                                votes[2] += 1;
                            }
                        }

                        // tree #83
                        if (x[14] <= 10.779999732971191) {
                            if (x[7] <= 11.109999656677246) {
                                votes[1] += 1;
                            }

                            else {
                                votes[3] += 1;
                            }
                        }

                        else {
                            if (x[26] <= 21.09999942779541) {
                                votes[0] += 1;
                            }

                            else {
                                votes[2] += 1;
                            }
                        }

                        // tree #84
                        if (x[23] <= 18.909998893737793) {
                            if (x[12] <= 14.009999752044678) {
                                votes[1] += 1;
                            }

                            else {
                                votes[0] += 1;
                            }
                        }

                        else {
                            if (x[10] <= 190.3699951171875) {
                                votes[2] += 1;
                            }

                            else {
                                votes[0] += 1;
                            }
                        }

                        // tree #85
                        if (x[5] <= 29.499998092651367) {
                            if (x[13] <= 15.1899995803833) {
                                votes[1] += 1;
                            }

                            else {
                                votes[2] += 1;
                            }
                        }

                        else {
                            if (x[61] <= 4.359999895095825) {
                                votes[0] += 1;
                            }

                            else {
                                votes[2] += 1;
                            }
                        }

                        // tree #86
                        if (x[21] <= 18.679999828338623) {
                            if (x[4] <= 27.299999237060547) {
                                votes[1] += 1;
                            }

                            else {
                                votes[0] += 1;
                            }
                        }

                        else {
                            if (x[51] <= 20.999999046325684) {
                                votes[2] += 1;
                            }

                            else {
                                votes[0] += 1;
                            }
                        }

                        // tree #87
                        if (x[19] <= 6.75) {
                            if (x[34] <= 6.75) {
                                votes[3] += 1;
                            }

                            else {
                                votes[1] += 1;
                            }
                        }

                        else {
                            if (x[25] <= 16.969999313354492) {
                                votes[0] += 1;
                            }

                            else {
                                votes[2] += 1;
                            }
                        }

                        // tree #88
                        if (x[13] <= 12.769999980926514) {
                            if (x[5] <= 12.239999771118164) {
                                votes[1] += 1;
                            }

                            else {
                                votes[3] += 1;
                            }
                        }

                        else {
                            if (x[26] <= 10.779999732971191) {
                                votes[0] += 1;
                            }

                            else {
                                votes[2] += 1;
                            }
                        }

                        // tree #89
                        if (x[14] <= 10.779999732971191) {
                            if (x[46] <= 1.809999942779541) {
                                votes[3] += 1;
                            }

                            else {
                                votes[1] += 1;
                            }
                        }

                        else {
                            if (x[55] <= 6.75) {
                                votes[0] += 1;
                            }

                            else {
                                votes[2] += 1;
                            }
                        }

                        // tree #90
                        if (x[11] <= 11.429999828338623) {
                            if (x[44] <= 6.5899999141693115) {
                                votes[3] += 1;
                            }

                            else {
                                votes[1] += 1;
                            }
                        }

                        else {
                            if (x[19] <= 13.289999961853027) {
                                votes[0] += 1;
                            }

                            else {
                                votes[2] += 1;
                            }
                        }

                        // tree #91
                        if (x[17] <= 10.949999809265137) {
                            if (x[0] <= 99.97999572753906) {
                                votes[1] += 1;
                            }

                            else {
                                votes[0] += 1;
                            }
                        }

                        else {
                            if (x[26] <= 4.359999895095825) {
                                votes[0] += 1;
                            }

                            else {
                                votes[2] += 1;
                            }
                        }

                        // tree #92
                        if (x[7] <= 18.8799991607666) {
                            if (x[53] <= 3.130000114440918) {
                                votes[1] += 1;
                            }

                            else {
                                votes[3] += 1;
                            }
                        }

                        else {
                            if (x[24] <= 17.6899995803833) {
                                votes[0] += 1;
                            }

                            else {
                                votes[2] += 1;
                            }
                        }

                        // tree #93
                        if (x[5] <= 17.309999465942383) {
                            if (x[63] <= 9.900000095367432) {
                                votes[1] += 1;
                            }

                            else {
                                votes[2] += 1;
                            }
                        }

                        else {
                            if (x[25] <= 11.949999809265137) {
                                votes[0] += 1;
                            }

                            else {
                                votes[2] += 1;
                            }
                        }

                        // tree #94
                        if (x[15] <= 7.659999847412109) {
                            if (x[50] <= 1.809999942779541) {
                                votes[3] += 1;
                            }

                            else {
                                votes[1] += 1;
                            }
                        }

                        else {
                            if (x[33] <= 5.680000066757202) {
                                votes[0] += 1;
                            }

                            else {
                                votes[2] += 1;
                            }
                        }

                        // tree #95
                        if (x[10] <= 12.519999980926514) {
                            if (x[4] <= 58.29999923706055) {
                                votes[1] += 1;
                            }

                            else {
                                votes[3] += 1;
                            }
                        }

                        else {
                            if (x[22] <= 20.699999809265137) {
                                votes[0] += 1;
                            }

                            else {
                                votes[2] += 1;
                            }
                        }

                        // tree #96
                        if (x[17] <= 9.209999561309814) {
                            if (x[34] <= 7.170000076293945) {
                                votes[3] += 1;
                            }

                            else {
                                votes[1] += 1;
                            }
                        }

                        else {
                            if (x[34] <= 6.75) {
                                votes[0] += 1;
                            }

                            else {
                                votes[2] += 1;
                            }
                        }

                        // tree #97
                        if (x[17] <= 10.039999961853027) {
                            if (x[5] <= 11.949999809265137) {
                                votes[1] += 1;
                            }

                            else {
                                votes[3] += 1;
                            }
                        }

                        else {
                            if (x[56] <= 6.75) {
                                votes[0] += 1;
                            }

                            else {
                                votes[2] += 1;
                            }
                        }

                        // tree #98
                        if (x[11] <= 11.429999828338623) {
                            if (x[46] <= 4.359999895095825) {
                                votes[3] += 1;
                            }

                            else {
                                votes[1] += 1;
                            }
                        }

                        else {
                            if (x[63] <= 9.889999389648438) {
                                votes[0] += 1;
                            }

                            else {
                                votes[2] += 1;
                            }
                        }

                        // tree #99
                        if (x[48] <= 5.680000066757202) {
                            if (x[5] <= 24.549999237060547) {
                                votes[1] += 1;
                            }

                            else {
                                votes[3] += 1;
                            }
                        }

                        else {
                            if (x[2] <= 196.6199951171875) {
                                votes[2] += 1;
                            }

                            else {
                                votes[0] += 1;
                            }
                        }

                        // tree #100
                        if (x[10] <= 14.470000267028809) {
                            if (x[50] <= 1.809999942779541) {
                                votes[3] += 1;
                            }

                            else {
                                votes[1] += 1;
                            }
                        }

                        else {
                            if (x[22] <= 20.25999927520752) {
                                votes[0] += 1;
                            }

                            else {
                                votes[2] += 1;
                            }
                        }

                        // return argmax of votes
                        uint8_t classIdx = 0;
                        float maxVotes = votes[0];

                        for (uint8_t i = 1; i < 4; i++) {
                            if (votes[i] > maxVotes) {
                                classIdx = i;
                                maxVotes = votes[i];
                            }
                        }

                        return classIdx;
                    }

                protected:
                };
            }
        }
    }