#pragma once
#include <cstdarg>
namespace Eloquent {
    namespace ML {
        namespace Port {
            class Classifier {
                public:
                    /**
                    * Predict class for features vector
                    */
                    int predict(float *x) {
                        uint8_t votes[4] = { 0 };
                        // tree #1
                        if (x[20] <= 1.809999942779541) {
                            if (x[0] <= 44.6299991607666) {
                                votes[1] += 1;
                            }

                            else {
                                votes[1] += 1;
                            }
                        }

                        else {
                            if (x[11] <= 11.71999979019165) {
                                votes[3] += 1;
                            }

                            else {
                                votes[0] += 1;
                            }
                        }

                        // tree #2
                        if (x[16] <= 8.46999979019165) {
                            if (x[3] <= 23.31999969482422) {
                                votes[1] += 1;
                            }

                            else {
                                votes[3] += 1;
                            }
                        }

                        else {
                            if (x[7] <= 12.269999980926514) {
                                votes[1] += 1;
                            }

                            else {
                                votes[2] += 1;
                            }
                        }

                        // tree #3
                        if (x[11] <= 10.53999948501587) {
                            if (x[1] <= 54.05999946594238) {
                                votes[1] += 1;
                            }

                            else {
                                votes[3] += 1;
                            }
                        }

                        else {
                            if (x[20] <= 4.359999895095825) {
                                votes[1] += 1;
                            }

                            else {
                                votes[0] += 1;
                            }
                        }

                        // tree #4
                        if (x[16] <= 9.209999561309814) {
                            if (x[5] <= 18.27999973297119) {
                                votes[1] += 1;
                            }

                            else {
                                votes[3] += 1;
                            }
                        }

                        else {
                            if (x[11] <= 10.53999948501587) {
                                votes[3] += 1;
                            }

                            else {
                                votes[0] += 1;
                            }
                        }

                        // tree #5
                        if (x[19] <= 7.659999847412109) {
                            if (x[5] <= 4.359999895095825) {
                                votes[1] += 1;
                            }

                            else {
                                votes[3] += 1;
                            }
                        }

                        else {
                            if (x[6] <= 10.53999948501587) {
                                votes[1] += 1;
                            }

                            else {
                                votes[0] += 1;
                            }
                        }

                        // tree #6
                        if (x[19] <= 4.359999895095825) {
                            if (x[6] <= 18.27999973297119) {
                                votes[1] += 1;
                            }

                            else {
                                votes[3] += 1;
                            }
                        }

                        else {
                            if (x[17] <= 5.680000066757202) {
                                votes[1] += 1;
                            }

                            else {
                                votes[2] += 1;
                            }
                        }

                        // tree #7
                        if (x[4] <= 14.25) {
                            if (x[27] <= 12.269999980926514) {
                                votes[1] += 1;
                            }

                            else {
                                votes[3] += 1;
                            }
                        }

                        else {
                            if (x[8] <= 17.90999984741211) {
                                votes[3] += 1;
                            }

                            else {
                                votes[0] += 1;
                            }
                        }

                        // tree #8
                        if (x[19] <= 5.680000066757202) {
                            if (x[38] <= 4.359999895095825) {
                                votes[3] += 1;
                            }

                            else {
                                votes[1] += 1;
                            }
                        }

                        else {
                            if (x[10] <= 12.789999961853027) {
                                votes[2] += 1;
                            }

                            else {
                                votes[0] += 1;
                            }
                        }

                        // tree #9
                        if (x[20] <= 5.680000066757202) {
                            if (x[4] <= 24.139999389648438) {
                                votes[1] += 1;
                            }

                            else {
                                votes[3] += 1;
                            }
                        }

                        else {
                            if (x[10] <= 15.559999465942383) {
                                votes[2] += 1;
                            }

                            else {
                                votes[0] += 1;
                            }
                        }

                        // tree #10
                        if (x[8] <= 5.680000066757202) {
                            if (x[20] <= 4.359999895095825) {
                                votes[1] += 1;
                            }

                            else {
                                votes[1] += 1;
                            }
                        }

                        else {
                            if (x[17] <= 7.659999847412109) {
                                votes[3] += 1;
                            }

                            else {
                                votes[2] += 1;
                            }
                        }

                        // tree #11
                        if (x[55] <= 1.809999942779541) {
                            if (x[7] <= 6.75) {
                                votes[1] += 1;
                            }

                            else {
                                votes[3] += 1;
                            }
                        }

                        else {
                            if (x[20] <= 6.75) {
                                votes[1] += 1;
                            }

                            else {
                                votes[0] += 1;
                            }
                        }

                        // tree #12
                        if (x[7] <= 12.789999961853027) {
                            if (x[18] <= 1.809999942779541) {
                                votes[1] += 1;
                            }

                            else {
                                votes[1] += 1;
                            }
                        }

                        else {
                            if (x[20] <= 6.75) {
                                votes[3] += 1;
                            }

                            else {
                                votes[0] += 1;
                            }
                        }

                        // tree #13
                        if (x[16] <= 5.680000066757202) {
                            if (x[7] <= 5.680000066757202) {
                                votes[1] += 1;
                            }

                            else {
                                votes[3] += 1;
                            }
                        }

                        else {
                            if (x[11] <= 11.149999618530273) {
                                votes[3] += 1;
                            }

                            else {
                                votes[0] += 1;
                            }
                        }

                        // tree #14
                        if (x[17] <= 5.680000066757202) {
                            if (x[3] <= 23.31999969482422) {
                                votes[1] += 1;
                            }

                            else {
                                votes[3] += 1;
                            }
                        }

                        else {
                            if (x[11] <= 12.269999980926514) {
                                votes[3] += 1;
                            }

                            else {
                                votes[0] += 1;
                            }
                        }

                        // tree #15
                        if (x[18] <= 6.75) {
                            if (x[39] <= 5.680000066757202) {
                                votes[3] += 1;
                            }

                            else {
                                votes[1] += 1;
                            }
                        }

                        else {
                            if (x[7] <= 17.53999900817871) {
                                votes[1] += 1;
                            }

                            else {
                                votes[0] += 1;
                            }
                        }

                        // tree #16
                        if (x[8] <= 13.78000020980835) {
                            if (x[22] <= 6.75) {
                                votes[1] += 1;
                            }

                            else {
                                votes[2] += 1;
                            }
                        }

                        else {
                            if (x[21] <= 4.359999895095825) {
                                votes[3] += 1;
                            }

                            else {
                                votes[0] += 1;
                            }
                        }

                        // tree #17
                        if (x[16] <= 6.75) {
                            if (x[3] <= 26.589999198913574) {
                                votes[1] += 1;
                            }

                            else {
                                votes[3] += 1;
                            }
                        }

                        else {
                            if (x[10] <= 12.519999980926514) {
                                votes[2] += 1;
                            }

                            else {
                                votes[0] += 1;
                            }
                        }

                        // tree #18
                        if (x[19] <= 5.680000066757202) {
                            if (x[41] <= 26.699999809265137) {
                                votes[1] += 1;
                            }

                            else {
                                votes[0] += 1;
                            }
                        }

                        else {
                            if (x[18] <= 7.659999847412109) {
                                votes[1] += 1;
                            }

                            else {
                                votes[2] += 1;
                            }
                        }

                        // tree #19
                        if (x[16] <= 6.75) {
                            if (x[4] <= 33.27000045776367) {
                                votes[1] += 1;
                            }

                            else {
                                votes[3] += 1;
                            }
                        }

                        else {
                            if (x[6] <= 15.980000019073486) {
                                votes[1] += 1;
                            }

                            else {
                                votes[2] += 1;
                            }
                        }

                        // tree #20
                        if (x[6] <= 12.789999961853027) {
                            if (x[13] <= 11.71999979019165) {
                                votes[1] += 1;
                            }

                            else {
                                votes[1] += 1;
                            }
                        }

                        else {
                            if (x[8] <= 17.90999984741211) {
                                votes[3] += 1;
                            }

                            else {
                                votes[0] += 1;
                            }
                        }

                        // tree #21
                        if (x[16] <= 9.209999561309814) {
                            if (x[3] <= 9.209999561309814) {
                                votes[1] += 1;
                            }

                            else {
                                votes[1] += 1;
                            }
                        }

                        else {
                            if (x[9] <= 13.78000020980835) {
                                votes[2] += 1;
                            }

                            else {
                                votes[0] += 1;
                            }
                        }

                        // tree #22
                        if (x[9] <= 13.78000020980835) {
                            if (x[3] <= 10.829999446868896) {
                                votes[1] += 1;
                            }

                            else {
                                votes[3] += 1;
                            }
                        }

                        else {
                            if (x[19] <= 4.359999895095825) {
                                votes[1] += 1;
                            }

                            else {
                                votes[0] += 1;
                            }
                        }

                        // tree #23
                        if (x[17] <= 8.46999979019165) {
                            if (x[6] <= 17.34999942779541) {
                                votes[1] += 1;
                            }

                            else {
                                votes[3] += 1;
                            }
                        }

                        else {
                            if (x[12] <= 11.149999618530273) {
                                votes[2] += 1;
                            }

                            else {
                                votes[0] += 1;
                            }
                        }

                        // tree #24
                        if (x[22] <= 5.680000066757202) {
                            if (x[6] <= 17.90999984741211) {
                                votes[1] += 1;
                            }

                            else {
                                votes[3] += 1;
                            }
                        }

                        else {
                            if (x[7] <= 15.980000019073486) {
                                votes[3] += 1;
                            }

                            else {
                                votes[0] += 1;
                            }
                        }

                        // tree #25
                        if (x[20] <= 5.680000066757202) {
                            if (x[7] <= 12.789999961853027) {
                                votes[1] += 1;
                            }

                            else {
                                votes[3] += 1;
                            }
                        }

                        else {
                            if (x[11] <= 16.380000114440918) {
                                votes[3] += 1;
                            }

                            else {
                                votes[0] += 1;
                            }
                        }

                        // tree #26
                        if (x[11] <= 15.980000019073486) {
                            if (x[7] <= 11.149999618530273) {
                                votes[1] += 1;
                            }

                            else {
                                votes[3] += 1;
                            }
                        }

                        else {
                            if (x[21] <= 7.659999847412109) {
                                votes[1] += 1;
                            }

                            else {
                                votes[0] += 1;
                            }
                        }

                        // tree #27
                        if (x[6] <= 9.889999389648438) {
                            if (x[38] <= 5.680000066757202) {
                                votes[1] += 1;
                            }

                            else {
                                votes[1] += 1;
                            }
                        }

                        else {
                            if (x[16] <= 9.209999561309814) {
                                votes[3] += 1;
                            }

                            else {
                                votes[0] += 1;
                            }
                        }

                        // tree #28
                        if (x[20] <= 5.680000066757202) {
                            if (x[60] <= 1.809999942779541) {
                                votes[1] += 1;
                            }

                            else {
                                votes[1] += 1;
                            }
                        }

                        else {
                            if (x[3] <= 14.699999809265137) {
                                votes[3] += 1;
                            }

                            else {
                                votes[2] += 1;
                            }
                        }

                        // tree #29
                        if (x[10] <= 12.269999980926514) {
                            if (x[16] <= 6.75) {
                                votes[1] += 1;
                            }

                            else {
                                votes[2] += 1;
                            }
                        }

                        else {
                            if (x[17] <= 11.71999979019165) {
                                votes[1] += 1;
                            }

                            else {
                                votes[0] += 1;
                            }
                        }

                        // tree #30
                        if (x[17] <= 6.75) {
                            if (x[45] <= 4.359999895095825) {
                                votes[3] += 1;
                            }

                            else {
                                votes[1] += 1;
                            }
                        }

                        else {
                            if (x[20] <= 1.809999942779541) {
                                votes[1] += 1;
                            }

                            else {
                                votes[2] += 1;
                            }
                        }

                        // tree #31
                        if (x[10] <= 15.559999465942383) {
                            if (x[19] <= 1.809999942779541) {
                                votes[1] += 1;
                            }

                            else {
                                votes[3] += 1;
                            }
                        }

                        else {
                            if (x[6] <= 18.6299991607666) {
                                votes[1] += 1;
                            }

                            else {
                                votes[0] += 1;
                            }
                        }

                        // tree #32
                        if (x[9] <= 13.289999961853027) {
                            if (x[13] <= 4.359999895095825) {
                                votes[1] += 1;
                            }

                            else {
                                votes[3] += 1;
                            }
                        }

                        else {
                            if (x[28] <= 10.53999948501587) {
                                votes[0] += 1;
                            }

                            else {
                                votes[2] += 1;
                            }
                        }

                        // tree #33
                        if (x[18] <= 5.680000066757202) {
                            if (x[6] <= 5.680000066757202) {
                                votes[1] += 1;
                            }

                            else {
                                votes[3] += 1;
                            }
                        }

                        else {
                            if (x[11] <= 12.269999980926514) {
                                votes[2] += 1;
                            }

                            else {
                                votes[0] += 1;
                            }
                        }

                        // tree #34
                        if (x[20] <= 6.75) {
                            if (x[3] <= 23.31999969482422) {
                                votes[1] += 1;
                            }

                            else {
                                votes[3] += 1;
                            }
                        }

                        else {
                            if (x[3] <= 14.699999809265137) {
                                votes[3] += 1;
                            }

                            else {
                                votes[0] += 1;
                            }
                        }

                        // tree #35
                        if (x[10] <= 14.699999809265137) {
                            if (x[19] <= 4.359999895095825) {
                                votes[1] += 1;
                            }

                            else {
                                votes[2] += 1;
                            }
                        }

                        else {
                            if (x[51] <= 53.78999900817871) {
                                votes[0] += 1;
                            }

                            else {
                                votes[1] += 1;
                            }
                        }

                        // tree #36
                        if (x[18] <= 5.680000066757202) {
                            if (x[7] <= 7.659999847412109) {
                                votes[1] += 1;
                            }

                            else {
                                votes[3] += 1;
                            }
                        }

                        else {
                            if (x[12] <= 11.149999618530273) {
                                votes[2] += 1;
                            }

                            else {
                                votes[0] += 1;
                            }
                        }

                        // tree #37
                        if (x[7] <= 18.089999198913574) {
                            if (x[18] <= 6.75) {
                                votes[1] += 1;
                            }

                            else {
                                votes[3] += 1;
                            }
                        }

                        else {
                            if (x[21] <= 1.809999942779541) {
                                votes[3] += 1;
                            }

                            else {
                                votes[0] += 1;
                            }
                        }

                        // tree #38
                        if (x[12] <= 14.25) {
                            if (x[3] <= 23.460000038146973) {
                                votes[1] += 1;
                            }

                            else {
                                votes[3] += 1;
                            }
                        }

                        else {
                            if (x[21] <= 4.359999895095825) {
                                votes[3] += 1;
                            }

                            else {
                                votes[0] += 1;
                            }
                        }

                        // tree #39
                        if (x[6] <= 8.46999979019165) {
                            if (x[14] <= 6.75) {
                                votes[1] += 1;
                            }

                            else {
                                votes[1] += 1;
                            }
                        }

                        else {
                            if (x[11] <= 8.46999979019165) {
                                votes[3] += 1;
                            }

                            else {
                                votes[0] += 1;
                            }
                        }

                        // tree #40
                        if (x[11] <= 10.53999948501587) {
                            if (x[8] <= 5.680000066757202) {
                                votes[1] += 1;
                            }

                            else {
                                votes[3] += 1;
                            }
                        }

                        else {
                            if (x[21] <= 4.359999895095825) {
                                votes[1] += 1;
                            }

                            else {
                                votes[0] += 1;
                            }
                        }

                        // tree #41
                        if (x[10] <= 15.559999465942383) {
                            if (x[7] <= 11.71999979019165) {
                                votes[1] += 1;
                            }

                            else {
                                votes[3] += 1;
                            }
                        }

                        else {
                            if (x[15] <= 28.380000114440918) {
                                votes[0] += 1;
                            }

                            else {
                                votes[2] += 1;
                            }
                        }

                        // tree #42
                        if (x[11] <= 15.12999963760376) {
                            if (x[3] <= 41.96999931335449) {
                                votes[1] += 1;
                            }

                            else {
                                votes[3] += 1;
                            }
                        }

                        else {
                            if (x[17] <= 12.269999980926514) {
                                votes[0] += 1;
                            }

                            else {
                                votes[2] += 1;
                            }
                        }

                        // tree #43
                        if (x[15] <= 8.46999979019165) {
                            if (x[6] <= 6.75) {
                                votes[1] += 1;
                            }

                            else {
                                votes[3] += 1;
                            }
                        }

                        else {
                            if (x[21] <= 6.75) {
                                votes[1] += 1;
                            }

                            else {
                                votes[0] += 1;
                            }
                        }

                        // tree #44
                        if (x[19] <= 5.680000066757202) {
                            if (x[3] <= 23.309999465942383) {
                                votes[1] += 1;
                            }

                            else {
                                votes[3] += 1;
                            }
                        }

                        else {
                            if (x[6] <= 15.559999465942383) {
                                votes[1] += 1;
                            }

                            else {
                                votes[0] += 1;
                            }
                        }

                        // tree #45
                        if (x[15] <= 8.46999979019165) {
                            if (x[40] <= 6.75) {
                                votes[3] += 1;
                            }

                            else {
                                votes[1] += 1;
                            }
                        }

                        else {
                            if (x[9] <= 14.25) {
                                votes[2] += 1;
                            }

                            else {
                                votes[0] += 1;
                            }
                        }

                        // tree #46
                        if (x[19] <= 5.680000066757202) {
                            if (x[6] <= 6.75) {
                                votes[1] += 1;
                            }

                            else {
                                votes[3] += 1;
                            }
                        }

                        else {
                            if (x[8] <= 16.380000114440918) {
                                votes[2] += 1;
                            }

                            else {
                                votes[0] += 1;
                            }
                        }

                        // tree #47
                        if (x[14] <= 6.75) {
                            if (x[57] <= 4.359999895095825) {
                                votes[1] += 1;
                            }

                            else {
                                votes[3] += 1;
                            }
                        }

                        else {
                            if (x[3] <= 15.980000019073486) {
                                votes[1] += 1;
                            }

                            else {
                                votes[0] += 1;
                            }
                        }

                        // tree #48
                        if (x[16] <= 8.46999979019165) {
                            if (x[5] <= 12.789999961853027) {
                                votes[1] += 1;
                            }

                            else {
                                votes[3] += 1;
                            }
                        }

                        else {
                            if (x[36] <= 17.16999912261963) {
                                votes[0] += 1;
                            }

                            else {
                                votes[3] += 1;
                            }
                        }

                        // tree #49
                        if (x[18] <= 5.680000066757202) {
                            if (x[9] <= 14.25) {
                                votes[1] += 1;
                            }

                            else {
                                votes[1] += 1;
                            }
                        }

                        else {
                            if (x[22] <= 72.72999572753906) {
                                votes[2] += 1;
                            }

                            else {
                                votes[3] += 1;
                            }
                        }

                        // tree #50
                        if (x[16] <= 6.75) {
                            if (x[5] <= 18.6299991607666) {
                                votes[1] += 1;
                            }

                            else {
                                votes[3] += 1;
                            }
                        }

                        else {
                            if (x[4] <= 17.16999912261963) {
                                votes[1] += 1;
                            }

                            else {
                                votes[2] += 1;
                            }
                        }

                        // tree #51
                        if (x[20] <= 6.75) {
                            if (x[6] <= 16.579999923706055) {
                                votes[1] += 1;
                            }

                            else {
                                votes[3] += 1;
                            }
                        }

                        else {
                            if (x[12] <= 11.149999618530273) {
                                votes[2] += 1;
                            }

                            else {
                                votes[0] += 1;
                            }
                        }

                        // tree #52
                        if (x[6] <= 16.77999973297119) {
                            if (x[8] <= 5.680000066757202) {
                                votes[1] += 1;
                            }

                            else {
                                votes[1] += 1;
                            }
                        }

                        else {
                            if (x[11] <= 14.25) {
                                votes[3] += 1;
                            }

                            else {
                                votes[0] += 1;
                            }
                        }

                        // tree #53
                        if (x[19] <= 5.680000066757202) {
                            if (x[17] <= 4.359999895095825) {
                                votes[1] += 1;
                            }

                            else {
                                votes[3] += 1;
                            }
                        }

                        else {
                            if (x[12] <= 9.889999389648438) {
                                votes[1] += 1;
                            }

                            else {
                                votes[0] += 1;
                            }
                        }

                        // tree #54
                        if (x[13] <= 8.46999979019165) {
                            if (x[7] <= 10.53999948501587) {
                                votes[1] += 1;
                            }

                            else {
                                votes[3] += 1;
                            }
                        }

                        else {
                            if (x[21] <= 6.75) {
                                votes[1] += 1;
                            }

                            else {
                                votes[2] += 1;
                            }
                        }

                        // tree #55
                        if (x[13] <= 10.53999948501587) {
                            if (x[1] <= 51.76999855041504) {
                                votes[1] += 1;
                            }

                            else {
                                votes[3] += 1;
                            }
                        }

                        else {
                            if (x[32] <= 19.309999465942383) {
                                votes[0] += 1;
                            }

                            else {
                                votes[2] += 1;
                            }
                        }

                        // tree #56
                        if (x[8] <= 13.78000020980835) {
                            if (x[20] <= 1.809999942779541) {
                                votes[1] += 1;
                            }

                            else {
                                votes[1] += 1;
                            }
                        }

                        else {
                            if (x[21] <= 4.359999895095825) {
                                votes[3] += 1;
                            }

                            else {
                                votes[2] += 1;
                            }
                        }

                        // tree #57
                        if (x[10] <= 15.559999465942383) {
                            if (x[21] <= 6.75) {
                                votes[1] += 1;
                            }

                            else {
                                votes[2] += 1;
                            }
                        }

                        else {
                            if (x[22] <= 13.289999961853027) {
                                votes[0] += 1;
                            }

                            else {
                                votes[2] += 1;
                            }
                        }

                        // tree #58
                        if (x[11] <= 11.149999618530273) {
                            if (x[16] <= 1.809999942779541) {
                                votes[1] += 1;
                            }

                            else {
                                votes[3] += 1;
                            }
                        }

                        else {
                            if (x[34] <= 1.809999942779541) {
                                votes[0] += 1;
                            }

                            else {
                                votes[0] += 1;
                            }
                        }

                        // tree #59
                        if (x[60] <= 1.809999942779541) {
                            if (x[17] <= 8.46999979019165) {
                                votes[3] += 1;
                            }

                            else {
                                votes[2] += 1;
                            }
                        }

                        else {
                            if (x[11] <= 14.699999809265137) {
                                votes[3] += 1;
                            }

                            else {
                                votes[0] += 1;
                            }
                        }

                        // tree #60
                        if (x[20] <= 4.359999895095825) {
                            if (x[26] <= 16.179999828338623) {
                                votes[1] += 1;
                            }

                            else {
                                votes[3] += 1;
                            }
                        }

                        else {
                            if (x[6] <= 10.53999948501587) {
                                votes[1] += 1;
                            }

                            else {
                                votes[2] += 1;
                            }
                        }

                        // tree #61
                        if (x[12] <= 15.12999963760376) {
                            if (x[4] <= 30.16999912261963) {
                                votes[1] += 1;
                            }

                            else {
                                votes[3] += 1;
                            }
                        }

                        else {
                            if (x[23] <= 63.06999969482422) {
                                votes[0] += 1;
                            }

                            else {
                                votes[3] += 1;
                            }
                        }

                        // tree #62
                        if (x[5] <= 12.789999961853027) {
                            if (x[16] <= 8.46999979019165) {
                                votes[1] += 1;
                            }

                            else {
                                votes[3] += 1;
                            }
                        }

                        else {
                            if (x[20] <= 4.359999895095825) {
                                votes[3] += 1;
                            }

                            else {
                                votes[0] += 1;
                            }
                        }

                        // tree #63
                        if (x[15] <= 8.46999979019165) {
                            if (x[2] <= 24.679999351501465) {
                                votes[1] += 1;
                            }

                            else {
                                votes[3] += 1;
                            }
                        }

                        else {
                            if (x[6] <= 9.209999561309814) {
                                votes[1] += 1;
                            }

                            else {
                                votes[2] += 1;
                            }
                        }

                        // tree #64
                        if (x[14] <= 10.53999948501587) {
                            if (x[7] <= 7.659999847412109) {
                                votes[1] += 1;
                            }

                            else {
                                votes[3] += 1;
                            }
                        }

                        else {
                            if (x[11] <= 12.269999980926514) {
                                votes[3] += 1;
                            }

                            else {
                                votes[0] += 1;
                            }
                        }

                        // tree #65
                        if (x[17] <= 6.75) {
                            if (x[4] <= 24.139999389648438) {
                                votes[1] += 1;
                            }

                            else {
                                votes[3] += 1;
                            }
                        }

                        else {
                            if (x[22] <= 1.809999942779541) {
                                votes[3] += 1;
                            }

                            else {
                                votes[0] += 1;
                            }
                        }

                        // tree #66
                        if (x[19] <= 4.359999895095825) {
                            if (x[24] <= 9.209999561309814) {
                                votes[1] += 1;
                            }

                            else {
                                votes[3] += 1;
                            }
                        }

                        else {
                            if (x[12] <= 15.12999963760376) {
                                votes[3] += 1;
                            }

                            else {
                                votes[0] += 1;
                            }
                        }

                        // tree #67
                        if (x[16] <= 9.209999561309814) {
                            if (x[12] <= 5.680000066757202) {
                                votes[1] += 1;
                            }

                            else {
                                votes[1] += 1;
                            }
                        }

                        else {
                            if (x[11] <= 11.149999618530273) {
                                votes[2] += 1;
                            }

                            else {
                                votes[0] += 1;
                            }
                        }

                        // tree #68
                        if (x[58] <= 5.680000066757202) {
                            if (x[20] <= 6.75) {
                                votes[1] += 1;
                            }

                            else {
                                votes[0] += 1;
                            }
                        }

                        else {
                            if (x[59] <= 19.309999465942383) {
                                votes[0] += 1;
                            }

                            else {
                                votes[1] += 1;
                            }
                        }

                        // tree #69
                        if (x[6] <= 9.889999389648438) {
                            if (x[0] <= 59.529998779296875) {
                                votes[1] += 1;
                            }

                            else {
                                votes[1] += 1;
                            }
                        }

                        else {
                            if (x[10] <= 12.269999980926514) {
                                votes[3] += 1;
                            }

                            else {
                                votes[0] += 1;
                            }
                        }

                        // tree #70
                        if (x[61] <= 1.809999942779541) {
                            if (x[15] <= 8.46999979019165) {
                                votes[1] += 1;
                            }

                            else {
                                votes[2] += 1;
                            }
                        }

                        else {
                            if (x[5] <= 16.380000114440918) {
                                votes[1] += 1;
                            }

                            else {
                                votes[0] += 1;
                            }
                        }

                        // tree #71
                        if (x[7] <= 12.789999961853027) {
                            if (x[15] <= 4.359999895095825) {
                                votes[1] += 1;
                            }

                            else {
                                votes[1] += 1;
                            }
                        }

                        else {
                            if (x[10] <= 11.149999618530273) {
                                votes[3] += 1;
                            }

                            else {
                                votes[0] += 1;
                            }
                        }

                        // tree #72
                        if (x[11] <= 13.289999961853027) {
                            if (x[4] <= 13.78000020980835) {
                                votes[1] += 1;
                            }

                            else {
                                votes[3] += 1;
                            }
                        }

                        else {
                            if (x[17] <= 14.25) {
                                votes[0] += 1;
                            }

                            else {
                                votes[0] += 1;
                            }
                        }

                        // tree #73
                        if (x[16] <= 8.46999979019165) {
                            if (x[36] <= 7.659999847412109) {
                                votes[3] += 1;
                            }

                            else {
                                votes[1] += 1;
                            }
                        }

                        else {
                            if (x[6] <= 10.53999948501587) {
                                votes[1] += 1;
                            }

                            else {
                                votes[0] += 1;
                            }
                        }

                        // tree #74
                        if (x[5] <= 14.699999809265137) {
                            if (x[6] <= 1.809999942779541) {
                                votes[1] += 1;
                            }

                            else {
                                votes[1] += 1;
                            }
                        }

                        else {
                            if (x[18] <= 7.659999847412109) {
                                votes[3] += 1;
                            }

                            else {
                                votes[0] += 1;
                            }
                        }

                        // tree #75
                        if (x[19] <= 5.680000066757202) {
                            if (x[3] <= 23.309999465942383) {
                                votes[1] += 1;
                            }

                            else {
                                votes[3] += 1;
                            }
                        }

                        else {
                            if (x[13] <= 5.680000066757202) {
                                votes[3] += 1;
                            }

                            else {
                                votes[0] += 1;
                            }
                        }

                        // tree #76
                        if (x[16] <= 6.75) {
                            if (x[3] <= 23.02999973297119) {
                                votes[1] += 1;
                            }

                            else {
                                votes[3] += 1;
                            }
                        }

                        else {
                            if (x[9] <= 14.25) {
                                votes[2] += 1;
                            }

                            else {
                                votes[0] += 1;
                            }
                        }

                        // tree #77
                        if (x[19] <= 5.680000066757202) {
                            if (x[7] <= 11.149999618530273) {
                                votes[1] += 1;
                            }

                            else {
                                votes[3] += 1;
                            }
                        }

                        else {
                            if (x[9] <= 13.289999961853027) {
                                votes[2] += 1;
                            }

                            else {
                                votes[0] += 1;
                            }
                        }

                        // tree #78
                        if (x[21] <= 6.75) {
                            if (x[10] <= 11.71999979019165) {
                                votes[1] += 1;
                            }

                            else {
                                votes[3] += 1;
                            }
                        }

                        else {
                            if (x[16] <= 6.75) {
                                votes[1] += 1;
                            }

                            else {
                                votes[2] += 1;
                            }
                        }

                        // tree #79
                        if (x[16] <= 9.209999561309814) {
                            if (x[7] <= 7.659999847412109) {
                                votes[1] += 1;
                            }

                            else {
                                votes[3] += 1;
                            }
                        }

                        else {
                            if (x[11] <= 11.71999979019165) {
                                votes[2] += 1;
                            }

                            else {
                                votes[0] += 1;
                            }
                        }

                        // tree #80
                        if (x[20] <= 6.75) {
                            if (x[14] <= 4.359999895095825) {
                                votes[1] += 1;
                            }

                            else {
                                votes[1] += 1;
                            }
                        }

                        else {
                            if (x[4] <= 14.699999809265137) {
                                votes[1] += 1;
                            }

                            else {
                                votes[2] += 1;
                            }
                        }

                        // tree #81
                        if (x[7] <= 7.659999847412109) {
                            if (x[18] <= 5.680000066757202) {
                                votes[1] += 1;
                            }

                            else {
                                votes[2] += 1;
                            }
                        }

                        else {
                            if (x[12] <= 6.75) {
                                votes[3] += 1;
                            }

                            else {
                                votes[0] += 1;
                            }
                        }

                        // tree #82
                        if (x[6] <= 15.559999465942383) {
                            if (x[5] <= 4.359999895095825) {
                                votes[1] += 1;
                            }

                            else {
                                votes[1] += 1;
                            }
                        }

                        else {
                            if (x[8] <= 17.53999900817871) {
                                votes[3] += 1;
                            }

                            else {
                                votes[0] += 1;
                            }
                        }

                        // tree #83
                        if (x[15] <= 8.46999979019165) {
                            if (x[4] <= 30.59999942779541) {
                                votes[1] += 1;
                            }

                            else {
                                votes[3] += 1;
                            }
                        }

                        else {
                            if (x[22] <= 4.359999895095825) {
                                votes[3] += 1;
                            }

                            else {
                                votes[2] += 1;
                            }
                        }

                        // tree #84
                        if (x[12] <= 15.12999963760376) {
                            if (x[8] <= 6.75) {
                                votes[1] += 1;
                            }

                            else {
                                votes[3] += 1;
                            }
                        }

                        else {
                            if (x[29] <= 9.889999389648438) {
                                votes[0] += 1;
                            }

                            else {
                                votes[2] += 1;
                            }
                        }

                        // tree #85
                        if (x[11] <= 11.149999618530273) {
                            if (x[16] <= 1.809999942779541) {
                                votes[1] += 1;
                            }

                            else {
                                votes[3] += 1;
                            }
                        }

                        else {
                            if (x[19] <= 5.680000066757202) {
                                votes[1] += 1;
                            }

                            else {
                                votes[0] += 1;
                            }
                        }

                        // tree #86
                        if (x[20] <= 6.75) {
                            if (x[0] <= 50.08999824523926) {
                                votes[1] += 1;
                            }

                            else {
                                votes[3] += 1;
                            }
                        }

                        else {
                            if (x[11] <= 11.71999979019165) {
                                votes[3] += 1;
                            }

                            else {
                                votes[0] += 1;
                            }
                        }

                        // tree #87
                        if (x[19] <= 5.680000066757202) {
                            if (x[5] <= 11.149999618530273) {
                                votes[1] += 1;
                            }

                            else {
                                votes[1] += 1;
                            }
                        }

                        else {
                            if (x[10] <= 14.25) {
                                votes[2] += 1;
                            }

                            else {
                                votes[0] += 1;
                            }
                        }

                        // tree #88
                        if (x[8] <= 13.78000020980835) {
                            if (x[16] <= 1.809999942779541) {
                                votes[1] += 1;
                            }

                            else {
                                votes[3] += 1;
                            }
                        }

                        else {
                            if (x[18] <= 6.75) {
                                votes[3] += 1;
                            }

                            else {
                                votes[0] += 1;
                            }
                        }

                        // tree #89
                        if (x[18] <= 5.680000066757202) {
                            if (x[7] <= 7.659999847412109) {
                                votes[1] += 1;
                            }

                            else {
                                votes[3] += 1;
                            }
                        }

                        else {
                            if (x[11] <= 11.71999979019165) {
                                votes[2] += 1;
                            }

                            else {
                                votes[0] += 1;
                            }
                        }

                        // tree #90
                        if (x[5] <= 12.789999961853027) {
                            if (x[16] <= 6.75) {
                                votes[1] += 1;
                            }

                            else {
                                votes[1] += 1;
                            }
                        }

                        else {
                            if (x[49] <= 4.359999895095825) {
                                votes[3] += 1;
                            }

                            else {
                                votes[2] += 1;
                            }
                        }

                        // tree #91
                        if (x[10] <= 18.969999313354492) {
                            if (x[7] <= 7.659999847412109) {
                                votes[1] += 1;
                            }

                            else {
                                votes[3] += 1;
                            }
                        }

                        else {
                            if (x[18] <= 7.659999847412109) {
                                votes[1] += 1;
                            }

                            else {
                                votes[0] += 1;
                            }
                        }

                        // tree #92
                        if (x[19] <= 5.680000066757202) {
                            if (x[5] <= 15.980000019073486) {
                                votes[1] += 1;
                            }

                            else {
                                votes[3] += 1;
                            }
                        }

                        else {
                            if (x[7] <= 17.16999912261963) {
                                votes[1] += 1;
                            }

                            else {
                                votes[0] += 1;
                            }
                        }

                        // tree #93
                        if (x[18] <= 5.680000066757202) {
                            if (x[40] <= 5.680000066757202) {
                                votes[3] += 1;
                            }

                            else {
                                votes[1] += 1;
                            }
                        }

                        else {
                            if (x[16] <= 89.65999984741211) {
                                votes[2] += 1;
                            }

                            else {
                                votes[1] += 1;
                            }
                        }

                        // tree #94
                        if (x[19] <= 4.359999895095825) {
                            if (x[5] <= 20.299999237060547) {
                                votes[1] += 1;
                            }

                            else {
                                votes[3] += 1;
                            }
                        }

                        else {
                            if (x[7] <= 17.16999912261963) {
                                votes[1] += 1;
                            }

                            else {
                                votes[0] += 1;
                            }
                        }

                        // tree #95
                        if (x[13] <= 9.209999561309814) {
                            if (x[6] <= 20.9399995803833) {
                                votes[1] += 1;
                            }

                            else {
                                votes[3] += 1;
                            }
                        }

                        else {
                            if (x[20] <= 6.75) {
                                votes[1] += 1;
                            }

                            else {
                                votes[0] += 1;
                            }
                        }

                        // tree #96
                        if (x[20] <= 5.680000066757202) {
                            if (x[5] <= 11.71999979019165) {
                                votes[1] += 1;
                            }

                            else {
                                votes[3] += 1;
                            }
                        }

                        else {
                            if (x[9] <= 13.78000020980835) {
                                votes[2] += 1;
                            }

                            else {
                                votes[0] += 1;
                            }
                        }

                        // tree #97
                        if (x[22] <= 4.359999895095825) {
                            if (x[5] <= 11.149999618530273) {
                                votes[1] += 1;
                            }

                            else {
                                votes[3] += 1;
                            }
                        }

                        else {
                            if (x[11] <= 15.980000019073486) {
                                votes[2] += 1;
                            }

                            else {
                                votes[0] += 1;
                            }
                        }

                        // tree #98
                        if (x[21] <= 4.359999895095825) {
                            if (x[8] <= 6.75) {
                                votes[1] += 1;
                            }

                            else {
                                votes[3] += 1;
                            }
                        }

                        else {
                            if (x[7] <= 17.53999900817871) {
                                votes[1] += 1;
                            }

                            else {
                                votes[0] += 1;
                            }
                        }

                        // tree #99
                        if (x[18] <= 6.75) {
                            if (x[2] <= 34.619998931884766) {
                                votes[1] += 1;
                            }

                            else {
                                votes[3] += 1;
                            }
                        }

                        else {
                            if (x[5] <= 15.980000019073486) {
                                votes[1] += 1;
                            }

                            else {
                                votes[0] += 1;
                            }
                        }

                        // tree #100
                        if (x[18] <= 5.680000066757202) {
                            if (x[12] <= 4.359999895095825) {
                                votes[3] += 1;
                            }

                            else {
                                votes[1] += 1;
                            }
                        }

                        else {
                            if (x[9] <= 13.78000020980835) {
                                votes[2] += 1;
                            }

                            else {
                                votes[0] += 1;
                            }
                        }

                        // return argmax of votes
                        uint8_t classIdx = 0;
                        float maxVotes = votes[0];

                        for (uint8_t i = 1; i < 4; i++) {
                            if (votes[i] > maxVotes) {
                                classIdx = i;
                                maxVotes = votes[i];
                            }
                        }

                        return classIdx;
                    }

                protected:
                };
            }
        }
    }